#include "bias2.hpp"
double temp_2[500]
{
-20.0,
-20.1,
-20.2,
-20.3,
-20.4,
-20.5,
-20.6,
-20.7,
-20.8,
-20.9,
-21.0,
-21.1,
-21.2,
-21.3,
-21.4,
-21.5,
-21.6,
-21.7,
-21.8,
-21.9,
-22.0,
-22.1,
-22.2,
-22.3,
-22.4,
-22.5,
-22.6,
-22.7,
-22.8,
-22.9,
-23.0,
-23.1,
-23.2,
-23.3,
-23.4,
-23.5,
-23.6,
-23.7,
-23.8,
-23.9,
-24.0,
-24.1,
-24.2,
-24.3,
-24.4,
-24.5,
-24.6,
-24.7,
-24.8,
-24.9,
-25.0,
-25.1,
-25.2,
-25.3,
-25.4,
-25.5,
-25.6,
-25.7,
-25.8,
-25.9,
-26.0,
-26.1,
-26.2,
-26.3,
-26.4,
-26.5,
-26.6,
-26.7,
-26.8,
-26.9,
-27.0,
-27.1,
-27.2,
-27.3,
-27.4,
-27.5,
-27.6,
-27.7,
-27.8,
-27.9,
-28.0,
-28.1,
-28.2,
-28.3,
-28.4,
-28.5,
-28.6,
-28.7,
-28.8,
-28.9,
-29.0,
-29.1,
-29.2,
-29.3,
-29.4,
-29.5,
-29.6,
-29.7,
-29.8,
-29.9,
-30.0,
-30.1,
-30.2,
-30.3,
-30.4,
-30.5,
-30.6,
-30.7,
-30.8,
-30.9,
-31.0,
-31.1,
-31.2,
-31.3,
-31.4,
-31.5,
-31.6,
-31.7,
-31.8,
-31.9,
-32.0,
-32.1,
-32.2,
-32.3,
-32.4,
-32.5,
-32.6,
-32.7,
-32.8,
-32.9,
-33.0,
-33.1,
-33.2,
-33.3,
-33.4,
-33.5,
-33.6,
-33.7,
-33.8,
-33.9,
-34.0,
-34.1,
-34.2,
-34.3,
-34.4,
-34.5,
-34.6,
-34.7,
-34.8,
-34.9,
-35.0,
-35.1,
-35.2,
-35.3,
-35.4,
-35.5,
-35.6,
-35.7,
-35.8,
-35.9,
-36.0,
-36.1,
-36.2,
-36.3,
-36.4,
-36.5,
-36.6,
-36.7,
-36.8,
-36.9,
-37.0,
-37.1,
-37.2,
-37.3,
-37.4,
-37.5,
-37.6,
-37.7,
-37.8,
-37.9,
-38.0,
-38.1,
-38.2,
-38.3,
-38.4,
-38.5,
-38.6,
-38.7,
-38.8,
-38.9,
-39.0,
-39.1,
-39.2,
-39.3,
-39.4,
-39.5,
-39.6,
-39.7,
-39.8,
-39.9,
-40.0,
-40.1,
-40.2,
-40.3,
-40.4,
-40.5,
-40.6,
-40.7,
-40.8,
-40.9,
-41.0,
-41.1,
-41.2,
-41.3,
-41.4,
-41.5,
-41.6,
-41.7,
-41.8,
-41.9,
-42.0,
-42.1,
-42.2,
-42.3,
-42.4,
-42.5,
-42.6,
-42.7,
-42.8,
-42.9,
-43.0,
-43.1,
-43.2,
-43.3,
-43.4,
-43.5,
-43.6,
-43.7,
-43.8,
-43.9,
-44.0,
-44.1,
-44.2,
-44.3,
-44.4,
-44.5,
-44.6,
-44.7,
-44.8,
-44.9,
-45.0,
-45.1,
-45.2,
-45.3,
-45.4,
-45.5,
-45.6,
-45.7,
-45.8,
-45.9,
-46.0,
-46.1,
-46.2,
-46.3,
-46.4,
-46.5,
-46.6,
-46.7,
-46.8,
-46.9,
-47.0,
-47.1,
-47.2,
-47.3,
-47.4,
-47.5,
-47.6,
-47.7,
-47.8,
-47.9,
-48.0,
-48.1,
-48.2,
-48.3,
-48.4,
-48.5,
-48.6,
-48.7,
-48.8,
-48.9,
-49.0,
-49.1,
-49.2,
-49.3,
-49.4,
-49.5,
-49.6,
-49.7,
-49.8,
-49.9,
-50.0,
-50.1,
-50.2,
-50.3,
-50.4,
-50.5,
-50.6,
-50.7,
-50.8,
-50.9,
-51.0,
-51.1,
-51.2,
-51.3,
-51.4,
-51.5,
-51.6,
-51.7,
-51.8,
-51.9,
-52.0,
-52.1,
-52.2,
-52.3,
-52.4,
-52.5,
-52.6,
-52.7,
-52.8,
-52.9,
-53.0,
-53.1,
-53.2,
-53.3,
-53.4,
-53.5,
-53.6,
-53.7,
-53.8,
-53.9,
-54.0,
-54.1,
-54.2,
-54.3,
-54.4,
-54.5,
-54.6,
-54.7,
-54.8,
-54.9,
-55.0,
-55.1,
-55.2,
-55.3,
-55.4,
-55.5,
-55.6,
-55.7,
-55.8,
-55.9,
-56.0,
-56.1,
-56.2,
-56.3,
-56.4,
-56.5,
-56.6,
-56.7,
-56.8,
-56.9,
-57.0,
-57.1,
-57.2,
-57.3,
-57.4,
-57.5,
-57.6,
-57.7,
-57.8,
-57.9,
-58.0,
-58.1,
-58.2,
-58.3,
-58.4,
-58.5,
-58.6,
-58.7,
-58.8,
-58.9,
-59.0,
-59.1,
-59.2,
-59.3,
-59.4,
-59.5,
-59.6,
-59.7,
-59.8,
-59.9,
-60.0,
-60.1,
-60.2,
-60.3,
-60.4,
-60.5,
-60.6,
-60.7,
-60.8,
-60.9,
-61.0,
-61.1,
-61.2,
-61.3,
-61.4,
-61.5,
-61.6,
-61.7,
-61.8,
-61.9,
-62.0,
-62.1,
-62.2,
-62.3,
-62.4,
-62.5,
-62.6,
-62.7,
-62.8,
-62.9,
-63.0,
-63.1,
-63.2,
-63.3,
-63.4,
-63.5,
-63.6,
-63.7,
-63.8,
-63.9,
-64.0,
-64.1,
-64.2,
-64.3,
-64.4,
-64.5,
-64.6,
-64.7,
-64.8,
-64.9,
-65.0,
-65.1,
-65.2,
-65.3,
-65.4,
-65.5,
-65.6,
-65.7,
-65.8,
-65.9,
-66.0,
-66.1,
-66.2,
-66.3,
-66.4,
-66.5,
-66.6,
-66.7,
-66.8,
-66.9,
};

uint16_t bias_2[500]=
{
1571,
1570,
1569,
1569,
1568,
1568,
1567,
1567,
1566,
1566,
1565,
1565,
1564,
1564,
1563,
1563,
1562,
1562,
1561,
1561,
1560,
1560,
1559,
1559,
1558,
1558,
1557,
1556,
1556,
1555,
1555,
1554,
1554,
1553,
1553,
1552,
1552,
1551,
1551,
1550,
1550,
1549,
1549,
1548,
1548,
1547,
1547,
1546,
1546,
1545,
1545,
1544,
1543,
1543,
1542,
1542,
1541,
1541,
1540,
1540,
1539,
1539,
1538,
1538,
1537,
1537,
1536,
1536,
1535,
1535,
1534,
1534,
1533,
1533,
1532,
1532,
1531,
1530,
1530,
1529,
1529,
1528,
1528,
1527,
1527,
1526,
1526,
1525,
1525,
1524,
1524,
1523,
1523,
1522,
1522,
1521,
1521,
1520,
1520,
1519,
1519,
1518,
1517,
1517,
1516,
1516,
1515,
1515,
1514,
1514,
1513,
1513,
1512,
1512,
1511,
1511,
1510,
1510,
1509,
1509,
1508,
1508,
1507,
1507,
1506,
1506,
1505,
1504,
1504,
1503,
1503,
1502,
1502,
1501,
1501,
1500,
1500,
1499,
1499,
1498,
1498,
1497,
1497,
1496,
1496,
1495,
1495,
1494,
1494,
1493,
1493,
1492,
1491,
1491,
1490,
1490,
1489,
1488,
1488,
1487,
1487,
1486,
1486,
1485,
1484,
1484,
1483,
1483,
1482,
1481,
1481,
1480,
1480,
1479,
1479,
1478,
1477,
1477,
1476,
1476,
1475,
1474,
1474,
1473,
1473,
1472,
1472,
1471,
1470,
1470,
1469,
1469,
1468,
1467,
1467,
1466,
1466,
1465,
1465,
1464,
1463,
1463,
1462,
1462,
1461,
1460,
1460,
1459,
1459,
1458,
1458,
1457,
1456,
1456,
1455,
1455,
1454,
1453,
1453,
1452,
1452,
1451,
1451,
1450,
1449,
1449,
1448,
1448,
1447,
1446,
1446,
1445,
1445,
1444,
1444,
1443,
1442,
1442,
1441,
1441,
1440,
1439,
1439,
1438,
1438,
1437,
1437,
1436,
1435,
1435,
1434,
1434,
1433,
1432,
1432,
1431,
1431,
1430,
1430,
1429,
1428,
1428,
1427,
1427,
1426,
1425,
1425,
1424,
1424,
1423,
1423,
1422,
1421,
1421,
1420,
1420,
1419,
1418,
1418,
1417,
1417,
1416,
1416,
1415,
1414,
1414,
1413,
1413,
1412,
1411,
1411,
1410,
1410,
1409,
1409,
1408,
1407,
1407,
1406,
1406,
1405,
1404,
1404,
1403,
1403,
1402,
1402,
1401,
1400,
1400,
1399,
1399,
1398,
1397,
1397,
1396,
1396,
1395,
1395,
1394,
1393,
1393,
1392,
1392,
1391,
1390,
1390,
1389,
1389,
1388,
1388,
1387,
1386,
1386,
1385,
1385,
1384,
1383,
1383,
1382,
1382,
1381,
1381,
1380,
1379,
1379,
1378,
1378,
1377,
1376,
1376,
1375,
1375,
1374,
1374,
1373,
1372,
1372,
1371,
1371,
1370,
1369,
1369,
1368,
1368,
1367,
1367,
1366,
1365,
1365,
1364,
1364,
1363,
1362,
1362,
1361,
1361,
1360,
1360,
1359,
1358,
1358,
1357,
1357,
1356,
1355,
1355,
1354,
1354,
1353,
1353,
1352,
1351,
1351,
1350,
1350,
1349,
1348,
1348,
1347,
1347,
1346,
1346,
1345,
1344,
1344,
1343,
1343,
1342,
1341,
1341,
1340,
1340,
1339,
1339,
1338,
1337,
1337,
1336,
1336,
1335,
1334,
1334,
1333,
1333,
1332,
1332,
1331,
1330,
1330,
1329,
1329,
1328,
1327,
1327,
1326,
1326,
1325,
1325,
1324,
1323,
1323,
1322,
1322,
1321,
1320,
1320,
1319,
1319,
1318,
1318,
1317,
1316,
1316,
1315,
1315,
1314,
1313,
1313,
1312,
1312,
1311,
1311,
1310,
1309,
1309,
1308,
1308,
1307,
1306
};